encog,BasicNetwork,java,3.3.0,1,1428837563234
[BASIC]
[BASIC:PARAMS]
[BASIC:NETWORK]
beginTraining=0
connectionLimit=0
contextTargetOffset=0,0,0
contextTargetSize=0,0,0
endTraining=2
hasContext=f
inputCount=30
layerCounts=1,31,31
layerFeedCounts=1,30,30
layerContextCount=0,0,0
layerIndex=0,1,32
output=0,0,0,0,0,0,0,0,0,0,0,0,0,0,0,0,0,0,0,0,0,0,0,0,0,0,0,0,0,0,0,1,0,0,0,0,0,0,0,0,0,0,0,0,0,0,0,0,0,0,0,0,0,0,0,0,0,0,0,0,0,0,1
outputCount=1
weightIndex=0,31,961
weights=0.9586030834,0.7917799655,0.5883634189,-1.3610709497,1.1594982605,-0.8033157581,-1.1377557751,2.9352902363,0.6688151041,0.3039632177,-0.88234627,0.0332877786,0.7475064942,1.0600339759,0.0332796573,0.6500198523,-0.5204847359,-0.3667594703,-0.3192488476,0.7575126973,-0.5114140024,3.325736905,0.780581498,0.0980096285,-0.2590821996,0.4192380759,-2.5295141688,0.2289835889,0.6515638853,-0.1475611397,-0.570670341,0.2610383803,0.9182072329,-0.5257109126,-0.766160745,-0.9818496027,0.7921999108,-0.1303878353,-0.304263133,0.3903987453,-0.9907806211,-0.9438064483,-0.0191911751,0.3993877983,0.3193717529,-6.820032609,-0.3479786118,-0.2739167298,-0.7640512962,-0.3776397677,-0.9744199835,1.0308870818,0.4723675697,-0.9796046914,-1.489729938,-0.0618396721,0.6890018332,-0.318044915,0.1903861874,0.8528702671,0.7953167577,0.1426864646,0.9243616565,0.1824384996,0.3727065503,-0.3527391925,0.5633639592,-0.4429963238,-0.027538648,0.557865959,-0.4057576427,0.3800805625,0.708496742,-0.6057805721,-0.6030141073,-0.9870083843,-6.6435758442,-1.7797410785,-0.034043872,0.0792984284,0.0298233948,0.1987167537,1.0271882305,-0.4951952681,0.2110213606,-0.7333341841,-0.5413052251,0.6883039358,-0.5387877175,1.158119617,0.7607321589,-0.0720363488,0.6396073655,0.2968765626,-0.6446521969,-0.323860678,0.5345940857,-0.4032367736,-0.7678235955,-0.8917286055,0.7801002987,0.3874587604,0.5756902624,0.4948383325,0.4963518252,-0.9649507975,0.7616584758,-7.0870899434,-0.3477616798,-0.3637948559,1.0826717444,0.607509319,0.6521319137,-0.2482524446,-0.2520884458,0.042583372,-0.0532181167,-0.8033067869,-0.3253639703,-0.2353312926,0.2187764827,0.8337809512,-0.383482183,-0.6150664374,0.4509999297,0.6713191216,0.8848270674,0.3749236594,0.6627378027,0.5262530523,0.4215608091,-0.2356915233,-0.0528444202,-0.5599799415,-0.3851557959,-0.3130491327,0.5217143814,0.3778146426,6.5416096302,1.2677935887,-0.086365204,-0.283886222,-1.2212694097,0.6990633539,-0.7801286553,0.232950296,0.0535932195,0.4216552463,1.0549711152,0.6669857134,-1.2819840573,-0.5352705689,0.5348177523,-0.4349088978,0.3250806,-0.6656327525,0.7215582416,0.5483965332,0.6275383041,0.3126882006,0.9253223087,-0.9978203894,0.9093624437,0.4773049838,-0.8590375983,-0.5710646974,-0.4840213935,-0.0667946762,0.3733355374,-8.0218557295,-1.587726414,0.534535787,-0.0176491603,-0.2236917647,0.2863678033,1.2156701432,-0.9700848485,-0.00024209,-0.5224421399,-0.076999359,-0.4015460113,-0.4898093287,0.0264588387,0.2041908128,0.1900917214,-0.0162801746,-0.1455229147,0.4047599458,0.663870069,-0.9530505287,-0.5216437889,-0.1434079734,0.7784563761,-0.4996042436,0.6300130889,0.0403202713,0.8726969278,-0.7084927432,-0.8545782043,0.6469310139,7.1920321801,0.1119178482,1.0691929614,-0.8652221843,0.060486606,-0.7971840927,0.2739016429,0.753207487,-0.777002557,-0.6150539072,0.4775980488,-0.8841076953,0.5052122207,-1.0017838007,0.7517136339,-0.8109494459,-0.3888455058,0.7703358053,-0.5203689574,-0.9678613022,0.9383531731,0.5172793275,0.4612765161,-0.3889495975,0.7725379714,-0.4007821732,0.2827922606,-0.0338031078,0.3924079851,0.9048418321,-0.6473934512,7.4349623781,0.5640573798,0.7254492304,-1.230629077,0.1631316737,0.5622335952,-0.320914942,0.5685686429,0.1347820005,0.7155632551,0.6319262529,1.0435714135,0.5541127233,-0.154539832,-0.9653304712,-0.7347222952,0.841736479,-0.6070099607,-0.0737194934,-0.1376182001,-0.9687517704,0.113645013,-0.4589506786,-0.8227002542,0.7721158122,0.050663077,0.7812083029,-0.8091908875,0.4438365091,0.998678006,0.526216617,-7.3794371698,-1.9482669054,-0.1463969194,0.4462955591,-0.1017722984,-0.787541986,1.1242381439,-0.4342915157,-0.1863046038,-1.191698631,-0.8974747539,-0.0185004728,-0.0318648866,0.6586907144,-0.9216369626,0.9832964428,-0.6692552085,-0.7176181077,0.0088484732,0.5344897379,-0.1813751647,-0.8407822126,-0.5885237956,-0.0271753791,0.0863237873,-0.8317067946,0.95796525,0.1817592661,0.2571657727,-0.7787201899,-0.6299991708,-7.2756917661,-1.5577438971,-0.2343008387,-0.683194373,0.2398751289,-0.2955331754,-0.5171488954,0.2223946565,-0.4104555392,0.5642993863,-0.4411535252,-0.7697555077,0.2971469343,0.342749222,0.5886187118,-0.6401348362,0.9592755112,0.7327721922,0.815040556,-0.038121789,-0.7092202987,-0.8590280739,-0.6144308557,0.6803285757,0.0218189559,-0.77122866,0.2682631246,0.4446560795,-0.7559445701,0.5833991952,-0.585196789,-6.2085854396,-0.3088407799,-0.3784283444,-0.2267799389,0.4339284391,0.8361804023,-0.6453706136,0.2222839226,-1.1011043365,-1.0244814603,-0.4272211337,-1.0950078542,-0.4037122335,-0.2474391614,0.4592281333,-0.136828136,-0.0168614399,0.2300511248,0.7569035929,-0.3404899747,0.7528249711,0.74630597,0.9562514729,0.0348823541,-0.0007112962,-0.0938776021,-0.499922653,0.5283332957,-0.2847302422,0.6042537844,-0.3039035401,7.1211533582,0.6989627694,-0.5080405478,-1.1750831744,-0.5860466262,-0.2689252202,0.027757782,0.8689601607,0.1208404504,0.6342367843,-0.01832788,-0.8479279709,-0.6423395001,-0.6692893814,0.8615268433,-0.4563528742,0.9067113431,-0.7636320713,0.9315326405,-0.4125447891,0.3750641781,-0.6964415256,0.0139780596,0.3365484735,0.3835124655,-0.7834755582,0.7029737996,-0.6299498252,-0.9012768155,-0.2451940451,-0.4694976707,-0.4368071371,-1.7394839042,0.6549371975,1.1727912426,0.6668593499,0.1523954227,0.1872485399,-0.332725706,0.0811977799,0.1838884932,-0.5882907141,-1.0132119139,0.6307413331,0.2034607301,0.7483176558,0.4547284284,0.0111765974,-0.8659015027,0.6488602172,-0.9434506046,0.2349755677,0.6060307895,-0.6259126607,0.0371040761,0.4177841095,-0.6113044761,-0.5760555171,-0.7995841009,-0.6733663728,0.6857008269,0.9440083387,-8.1951803132,-0.8646236731,-0.9230578021,0.6961831928,0.5765694979,0.5928296185,1.1818126056,-0.5970742161,-0.6430266112,-0.9652466973,-0.8958379133,-0.2225894381,1.0105969505,-0.5589998826,-0.9474308328,-0.14579615,-0.4801525474,-0.8126569294,0.5501951672,0.8928768142,0.2558140402,0.6342474466,-0.7064049098,0.2845203174,0.9645282604,-0.5339288181,0.1001493497,-0.9234843355,0.6223238164,0.3153919428,-0.3199882442,-6.792557206,-1.2100604477,0.1395772479,-0.0331605322,0.4368071625,-0.0513855093,0.2312862807,1.0511500016,-0.0184125755,-0.6394220695,-0.7299347831,-0.709272384,-0.4387317516,0.3731035729,0.6095495823,0.428904921,0.602564106,0.4377212023,0.7922554156,-0.6063593252,0.4657839508,-0.6394710667,0.541948916,-0.3719196696,0.4133666731,0.896555412,0.687707472,-0.5431718499,0.4891201856,0.2022053386,-0.8974377511,-7.2095735672,-1.0814649411,0.5438024369,0.5681227303,-0.3341573356,-0.6031231575,0.2658645791,-0.7119764548,0.3011408799,0.4442335801,-0.4246313741,-1.0788336368,-0.1563438641,0.2473151755,0.9294686371,0.8976041347,-0.829636106,0.4735807201,-0.3314595831,0.5402959311,0.4373174772,-0.0048640595,-0.4811038565,0.7856622531,-0.0506616044,-0.0030971068,0.0570286204,-0.6976016116,0.4472760418,0.4643643312,0.8480234825,-6.7365570102,-1.9129302703,-0.8863960319,0.9303934236,-0.129876639,-0.3183099987,0.3424606565,-0.2507392468,-0.1649599844,-1.0033658677,-0.6949674527,0.4757453474,0.4516330268,0.6419432717,-0.2532736678,0.626240711,-0.1924240378,-0.2211463655,0.5720088272,-0.3569870946,-0.5480253169,0.4164607275,0.9867332237,-0.0067724809,-0.1833163165,0.1042741745,-0.5299896491,0.5658430331,0.1963821182,-0.4391439408,0.1232279041,6.7792071003,0.5594786328,-0.3554963646,-0.5104909084,0.3971042136,-0.237319736,-0.2949118242,0.5056372781,0.9113953502,-0.3900857476,-0.413726453,-0.1600546796,-0.4490950053,-0.6064527233,0.2851753671,0.974805991,-0.5514654419,-0.4410853494,0.6806641317,0.3693716355,-0.3001774641,-0.5745600095,0.287313086,0.1962497757,0.3208581887,0.1148307719,-0.7000104226,0.2172549605,0.5586319088,-0.7638832177,0.076365939,7.0584165652,0.6097465692,0.4541837542,-1.0815286828,0.0508199832,-0.9111780718,-1.0789923216,-0.5722452195,-0.5392894532,1.1611112888,0.4066144004,-0.3946181784,0.3658805278,-1.254839863,0.9133696903,0.3724798778,0.7618691314,-0.0154559779,0.4719836161,0.2094242535,0.7091480635,-0.025772289,-0.627353903,0.5759753578,-0.9427415872,-0.9127204965,0.0396287809,0.6566474796,-0.3230272274,0.402561957,-0.8105691492,7.6889961929,0.3764013681,0.1329649143,-0.1085457822,-1.2381551431,-0.6806673536,-0.9615166011,0.8221811365,0.1915223082,0.9913924366,0.1465572036,-0.1031495815,-0.2200353303,-0.6447927518,0.9467690589,0.5713920993,0.1699160864,-0.0210337975,-0.9518791497,0.5079290227,-0.2199062527,-0.3190436471,0.944902482,-0.3447004885,0.3243213636,0.1583657662,0.9362036236,-0.9953308075,0.3023643227,-0.6731031952,-0.9139017165,-7.6318811026,-0.5236037048,-1.1841994729,0.011339619,1.0016502625,0.228602036,0.8329926351,-0.3451224493,0.5167913051,-1.1079087372,0.2178084032,0.8536141218,-0.3757854242,0.0844061697,0.5040990396,-0.525152612,-0.3191311535,0.6704180144,0.809510186,-0.8640111944,-0.3463010933,0.3514055282,-0.088614843,-0.7576557806,-0.1795407872,0.2853932276,-0.6741909385,0.5194336062,0.0710437456,-0.6975818066,-0.5402964623,8.0481328818,0.969711138,0.246862654,-1.1884754581,0.0082786877,0.6041038948,0.4641667439,-0.9094871052,-0.0243004434,1.2154668095,1.2834310762,-0.0503478297,0.1996374499,0.5215966247,0.9070935257,0.796661314,0.5959669655,-0.1852805684,-0.5117338127,0.885235902,0.3605008337,-0.4039787108,0.6176285497,0.7486130588,-0.3697665143,-0.3784788015,0.7870484908,0.4444218467,-0.8107426953,-0.8767730101,-0.0436280885,-7.8341309896,-1.1868849235,-0.9778596776,-0.4484464398,1.0641139287,-0.7256766731,0.7072745181,0.0681522742,0.6815069869,-0.3385715211,-1.1485170623,-0.0202315325,-0.3764835813,0.4430344537,-0.7205155345,0.3120080557,-0.4068502188,0.0005199003,-0.8653538808,0.995778954,-0.4337217531,0.209551051,0.8966010163,-0.4581409453,-0.5694779128,0.2118027496,0.7241662571,0.551004082,-0.7562711121,-0.6268138095,0.7237757688,-6.7297569515,-1.3448815073,0.1349003484,1.0947444032,-0.5580457968,0.5708642162,1.2306339225,-0.3990828848,-0.2231714576,-0.0667208299,-0.1370771261,0.691746833,-0.1281287098,0.896273938,0.9341707042,0.2318540053,-0.5631722294,-0.3526223766,0.9474183549,0.0292491566,-0.5906430708,-0.6059870142,-0.2064832827,0.3963430944,0.1603944318,-0.7971779638,-0.1278638424,0.0363328569,0.4770103213,0.9801404902,-0.2532352591,4.3111036053,0.3200154217,1.557035054,-0.6345485904,0.3524420099,0.5070517174,-0.3760824658,-0.5598344783,0.152612848,-0.6038239184,-0.5138570918,0.5576685266,-1.0083199279,0.6141818861,0.5535746042,-0.0138832264,-0.1238488738,-0.4231266773,0.2481224598,-0.8353661601,0.1354153563,-0.4444687498,0.6068261204,-0.813558094,0.3005646716,-0.4836930581,-0.0181807151,0.5283248206,0.5289198945,-0.3021818294,0.8086210105,6.6084811284,1.7267461801,0.0749650309,0.483244364,-1.2690499183,-0.4083424163,-0.1640392677,-0.4161274267,-0.1345792853,-0.4976692006,0.4993956075,-0.484009373,0.1197456186,0.5768987324,-0.43437122,0.6530897016,-0.8736083366,-0.3050855761,-0.6070663191,0.2373227023,0.1147446641,0.2759179379,0.6909386785,-0.7403560738,-0.0193177973,0.2996350723,0.1370171993,-0.1143762228,0.1153868579,-0.0304218884,0.5209625811,-7.6701533251,-0.4925703601,-0.369731279,-0.5143706282,0.6310525791,0.7503728174,-0.3169344321,0.2912568876,0.6082776276,-0.4601262679,-0.7586173845,-0.1308603858,0.9469496199,0.127659802,0.0100929253,0.5000196923,0.8512513536,0.6932586074,-0.3719492766,0.7656783516,0.8504120861,0.541365364,0.2062906389,0.5925142142,-0.5781683207,0.141091595,-0.5674333468,0.7751814917,-0.6800355656,-0.7258700125,0.3260700429,1.1647943196,1.5328639493,0.3577090356,-0.7544662693,0.557580318,0.6748891215,-0.2811650387,-0.2538530215,0.8178871241,-0.0335545976,-0.9362343789,0.0717720509,-0.5581697836,0.2730552909,-0.618337825,-0.7881943628,-0.7790787187,0.6225945531,-0.3045033891,-0.5250487816,0.0164429509,-0.174248106,-0.7327523049,0.6025576137,-0.8583043023,0.8392163837,-0.6387163065,-0.3466378081,0.9556364299,-0.9134380871,0.1213538666,-7.191559034,-1.5012672258,-0.130022916,-0.2242574753,0.7049360933,-0.0323221565,-0.640883043,0.357347474,0.1049482346,0.6305159342,0.0299197183,0.6728412897,0.7847034937,0.696685269,-0.9327127933,-0.1912186921,-0.0861034662,-0.8547854235,0.9022026007,-0.0542837516,0.4495881952,0.0906037758,0.2743490156,-0.6924768882,-0.0874435775,0.9147613398,0.7314275998,0.5896040975,-0.8618643323,0.9863824087,-0.8126839472,-7.4894303538,-0.5244601073,0.59700754,1.1861863212,0.4370467686,0.8718650608,-0.2088570184,-0.5213341094,-0.4213268651,-0.4001354866,-0.5502693975,-0.6276406261,-0.3155396862,-0.3192053116,0.7972680224,-0.8642698089,0.912693197,-0.5810095748,0.0315544438,0.125086197,0.1894678414,-0.9929035048,0.5846036853,-0.9748866954,-0.608523816,0.0312971466,-0.9066085361,-0.3959042751,0.720927887,0.1191808956,-0.6736848259,7.0246005774,1.2749117135,1.2095020893,-0.6333761874,0.6390097443,0.8119027887,-1.5929457768,0.8632394399,-0.6920081182,0.266999446,-0.5399092353,0.1489220611,-1.0674727845,-1.0685186094,0.3956906814,0.2136446203,0.4652352243
biasActivation=0,1,1
[BASIC:ACTIVATION]
"org.encog.engine.network.activation.ActivationSigmoid"
"org.encog.engine.network.activation.ActivationSigmoid"
"org.encog.engine.network.activation.ActivationLinear"
